digraph Tree {
node [shape=box] ;
0 [label="X[0] <= 128.8836\ngini = 0.6667\nsamples = 300\nvalue = [100, 100, 100]"] ;
1 [label="X[2] <= 299.019\ngini = 0.6396\nsamples = 208\nvalue = [88, 42, 78]"] ;
0 -> 1 [labeldistance=2.5, labelangle=45, headlabel="True"] ;
2 [label="X[0] <= 96.6223\ngini = 0.516\nsamples = 73\nvalue = [45, 23, 5]"] ;
1 -> 2 ;
3 [label="X[0] <= 42.7685\ngini = 0.2987\nsamples = 23\nvalue = [19, 1, 3]"] ;
2 -> 3 ;
4 [label="gini = 0.0\nsamples = 2\nvalue = [0, 0, 2]"] ;
3 -> 4 ;
5 [label="X[1] <= 66.2091\ngini = 0.1769\nsamples = 21\nvalue = [19, 1, 1]"] ;
3 -> 5 ;
6 [label="X[2] <= 157.9243\ngini = 0.449\nsamples = 7\nvalue = [5, 1, 1]"] ;
5 -> 6 ;
7 [label="X[0] <= 87.323\ngini = 0.5\nsamples = 2\nvalue = [0, 1, 1]"] ;
6 -> 7 ;
8 [label="gini = 0.0\nsamples = 1\nvalue = [0, 0, 1]"] ;
7 -> 8 ;
9 [label="gini = 0.0\nsamples = 1\nvalue = [0, 1, 0]"] ;
7 -> 9 ;
10 [label="gini = 0.0\nsamples = 5\nvalue = [5, 0, 0]"] ;
6 -> 10 ;
11 [label="gini = 0.0\nsamples = 14\nvalue = [14, 0, 0]"] ;
5 -> 11 ;
12 [label="X[2] <= 150.3901\ngini = 0.5344\nsamples = 50\nvalue = [26, 22, 2]"] ;
2 -> 12 ;
13 [label="X[2] <= 50.8611\ngini = 0.4911\nsamples = 27\nvalue = [17, 9, 1]"] ;
12 -> 13 ;
14 [label="X[1] <= 98.1562\ngini = 0.32\nsamples = 5\nvalue = [1, 4, 0]"] ;
13 -> 14 ;
15 [label="gini = 0.0\nsamples = 3\nvalue = [0, 3, 0]"] ;
14 -> 15 ;
16 [label="X[2] <= 28.8278\ngini = 0.5\nsamples = 2\nvalue = [1, 1, 0]"] ;
14 -> 16 ;
17 [label="gini = 0.0\nsamples = 1\nvalue = [0, 1, 0]"] ;
16 -> 17 ;
18 [label="gini = 0.0\nsamples = 1\nvalue = [1, 0, 0]"] ;
16 -> 18 ;
19 [label="X[1] <= 70.865\ngini = 0.4174\nsamples = 22\nvalue = [16, 5, 1]"] ;
13 -> 19 ;
20 [label="gini = 0.0\nsamples = 1\nvalue = [0, 0, 1]"] ;
19 -> 20 ;
21 [label="X[1] <= 90.7183\ngini = 0.3628\nsamples = 21\nvalue = [16, 5, 0]"] ;
19 -> 21 ;
22 [label="X[1] <= 88.3524\ngini = 0.4898\nsamples = 7\nvalue = [4, 3, 0]"] ;
21 -> 22 ;
23 [label="gini = 0.0\nsamples = 3\nvalue = [3, 0, 0]"] ;
22 -> 23 ;
24 [label="X[2] <= 142.7647\ngini = 0.375\nsamples = 4\nvalue = [1, 3, 0]"] ;
22 -> 24 ;
25 [label="gini = 0.0\nsamples = 3\nvalue = [0, 3, 0]"] ;
24 -> 25 ;
26 [label="gini = 0.0\nsamples = 1\nvalue = [1, 0, 0]"] ;
24 -> 26 ;
27 [label="X[1] <= 105.2977\ngini = 0.2449\nsamples = 14\nvalue = [12, 2, 0]"] ;
21 -> 27 ;
28 [label="gini = 0.0\nsamples = 9\nvalue = [9, 0, 0]"] ;
27 -> 28 ;
29 [label="X[1] <= 106.9621\ngini = 0.48\nsamples = 5\nvalue = [3, 2, 0]"] ;
27 -> 29 ;
30 [label="gini = 0.0\nsamples = 2\nvalue = [0, 2, 0]"] ;
29 -> 30 ;
31 [label="gini = 0.0\nsamples = 3\nvalue = [3, 0, 0]"] ;
29 -> 31 ;
32 [label="X[0] <= 111.6438\ngini = 0.5255\nsamples = 23\nvalue = [9, 13, 1]"] ;
12 -> 32 ;
33 [label="X[0] <= 96.9286\ngini = 0.54\nsamples = 10\nvalue = [6, 3, 1]"] ;
32 -> 33 ;
34 [label="gini = 0.0\nsamples = 2\nvalue = [0, 2, 0]"] ;
33 -> 34 ;
35 [label="X[1] <= 88.1561\ngini = 0.4063\nsamples = 8\nvalue = [6, 1, 1]"] ;
33 -> 35 ;
36 [label="gini = 0.0\nsamples = 6\nvalue = [6, 0, 0]"] ;
35 -> 36 ;
37 [label="X[0] <= 101.0147\ngini = 0.5\nsamples = 2\nvalue = [0, 1, 1]"] ;
35 -> 37 ;
38 [label="gini = 0.0\nsamples = 1\nvalue = [0, 0, 1]"] ;
37 -> 38 ;
39 [label="gini = 0.0\nsamples = 1\nvalue = [0, 1, 0]"] ;
37 -> 39 ;
40 [label="X[0] <= 119.5795\ngini = 0.355\nsamples = 13\nvalue = [3, 10, 0]"] ;
32 -> 40 ;
41 [label="gini = 0.0\nsamples = 7\nvalue = [0, 7, 0]"] ;
40 -> 41 ;
42 [label="X[0] <= 126.1836\ngini = 0.5\nsamples = 6\nvalue = [3, 3, 0]"] ;
40 -> 42 ;
43 [label="gini = 0.0\nsamples = 2\nvalue = [2, 0, 0]"] ;
42 -> 43 ;
44 [label="X[1] <= 115.5796\ngini = 0.375\nsamples = 4\nvalue = [1, 3, 0]"] ;
42 -> 44 ;
45 [label="gini = 0.0\nsamples = 3\nvalue = [0, 3, 0]"] ;
44 -> 45 ;
46 [label="gini = 0.0\nsamples = 1\nvalue = [1, 0, 0]"] ;
44 -> 46 ;
47 [label="X[1] <= 77.1003\ngini = 0.5863\nsamples = 135\nvalue = [43, 19, 73]"] ;
1 -> 47 ;
48 [label="X[1] <= 54.221\ngini = 0.3949\nsamples = 66\nvalue = [10, 6, 50]"] ;
47 -> 48 ;
49 [label="X[2] <= 673.0881\ngini = 0.0868\nsamples = 22\nvalue = [0, 1, 21]"] ;
48 -> 49 ;
50 [label="gini = 0.0\nsamples = 17\nvalue = [0, 0, 17]"] ;
49 -> 50 ;
51 [label="X[2] <= 822.4321\ngini = 0.32\nsamples = 5\nvalue = [0, 1, 4]"] ;
49 -> 51 ;
52 [label="gini = 0.0\nsamples = 1\nvalue = [0, 1, 0]"] ;
51 -> 52 ;
53 [label="gini = 0.0\nsamples = 4\nvalue = [0, 0, 4]"] ;
51 -> 53 ;
54 [label="X[1] <= 58.1072\ngini = 0.501\nsamples = 44\nvalue = [10, 5, 29]"] ;
48 -> 54 ;
55 [label="X[1] <= 57.0024\ngini = 0.4898\nsamples = 7\nvalue = [4, 0, 3]"] ;
54 -> 55 ;
56 [label="X[0] <= 116.3204\ngini = 0.48\nsamples = 5\nvalue = [2, 0, 3]"] ;
55 -> 56 ;
57 [label="gini = 0.0\nsamples = 3\nvalue = [0, 0, 3]"] ;
56 -> 57 ;
58 [label="gini = 0.0\nsamples = 2\nvalue = [2, 0, 0]"] ;
56 -> 58 ;
59 [label="gini = 0.0\nsamples = 2\nvalue = [2, 0, 0]"] ;
55 -> 59 ;
60 [label="X[1] <= 71.6916\ngini = 0.4617\nsamples = 37\nvalue = [6, 5, 26]"] ;
54 -> 60 ;
61 [label="X[2] <= 1164.8945\ngini = 0.3554\nsamples = 23\nvalue = [4, 1, 18]"] ;
60 -> 61 ;
62 [label="X[2] <= 353.372\ngini = 0.3099\nsamples = 22\nvalue = [3, 1, 18]"] ;
61 -> 62 ;
63 [label="X[0] <= 114.4114\ngini = 0.6111\nsamples = 6\nvalue = [2, 1, 3]"] ;
62 -> 63 ;
64 [label="X[1] <= 66.3232\ngini = 0.48\nsamples = 5\nvalue = [2, 0, 3]"] ;
63 -> 64 ;
65 [label="X[0] <= 87.9843\ngini = 0.4444\nsamples = 3\nvalue = [2, 0, 1]"] ;
64 -> 65 ;
66 [label="gini = 0.0\nsamples = 1\nvalue = [1, 0, 0]"] ;
65 -> 66 ;
67 [label="X[2] <= 336.4237\ngini = 0.5\nsamples = 2\nvalue = [1, 0, 1]"] ;
65 -> 67 ;
68 [label="gini = 0.0\nsamples = 1\nvalue = [0, 0, 1]"] ;
67 -> 68 ;
69 [label="gini = 0.0\nsamples = 1\nvalue = [1, 0, 0]"] ;
67 -> 69 ;
70 [label="gini = 0.0\nsamples = 2\nvalue = [0, 0, 2]"] ;
64 -> 70 ;
71 [label="gini = 0.0\nsamples = 1\nvalue = [0, 1, 0]"] ;
63 -> 71 ;
72 [label="X[2] <= 867.5279\ngini = 0.1172\nsamples = 16\nvalue = [1, 0, 15]"] ;
62 -> 72 ;
73 [label="gini = 0.0\nsamples = 13\nvalue = [0, 0, 13]"] ;
72 -> 73 ;
74 [label="X[2] <= 877.8623\ngini = 0.4444\nsamples = 3\nvalue = [1, 0, 2]"] ;
72 -> 74 ;
75 [label="gini = 0.0\nsamples = 1\nvalue = [1, 0, 0]"] ;
74 -> 75 ;
76 [label="gini = 0.0\nsamples = 2\nvalue = [0, 0, 2]"] ;
74 -> 76 ;
77 [label="gini = 0.0\nsamples = 1\nvalue = [1, 0, 0]"] ;
61 -> 77 ;
78 [label="X[1] <= 72.4311\ngini = 0.5714\nsamples = 14\nvalue = [2, 4, 8]"] ;
60 -> 78 ;
79 [label="X[2] <= 738.4531\ngini = 0.4444\nsamples = 3\nvalue = [1, 2, 0]"] ;
78 -> 79 ;
80 [label="gini = 0.0\nsamples = 2\nvalue = [0, 2, 0]"] ;
79 -> 80 ;
81 [label="gini = 0.0\nsamples = 1\nvalue = [1, 0, 0]"] ;
79 -> 81 ;
82 [label="X[2] <= 364.1413\ngini = 0.4298\nsamples = 11\nvalue = [1, 2, 8]"] ;
78 -> 82 ;
83 [label="gini = 0.0\nsamples = 1\nvalue = [0, 1, 0]"] ;
82 -> 83 ;
84 [label="X[2] <= 385.9276\ngini = 0.34\nsamples = 10\nvalue = [1, 1, 8]"] ;
82 -> 84 ;
85 [label="X[1] <= 73.3195\ngini = 0.5\nsamples = 2\nvalue = [1, 0, 1]"] ;
84 -> 85 ;
86 [label="gini = 0.0\nsamples = 1\nvalue = [0, 0, 1]"] ;
85 -> 86 ;
87 [label="gini = 0.0\nsamples = 1\nvalue = [1, 0, 0]"] ;
85 -> 87 ;
88 [label="X[1] <= 72.9985\ngini = 0.2188\nsamples = 8\nvalue = [0, 1, 7]"] ;
84 -> 88 ;
89 [label="X[0] <= 106.2572\ngini = 0.5\nsamples = 2\nvalue = [0, 1, 1]"] ;
88 -> 89 ;
90 [label="gini = 0.0\nsamples = 1\nvalue = [0, 0, 1]"] ;
89 -> 90 ;
91 [label="gini = 0.0\nsamples = 1\nvalue = [0, 1, 0]"] ;
89 -> 91 ;
92 [label="gini = 0.0\nsamples = 6\nvalue = [0, 0, 6]"] ;
88 -> 92 ;
93 [label="X[2] <= 1025.3441\ngini = 0.6247\nsamples = 69\nvalue = [33, 13, 23]"] ;
47 -> 93 ;
94 [label="X[0] <= 105.9245\ngini = 0.6405\nsamples = 63\nvalue = [27, 13, 23]"] ;
93 -> 94 ;
95 [label="X[0] <= 104.061\ngini = 0.4913\nsamples = 17\nvalue = [11, 1, 5]"] ;
94 -> 95 ;
96 [label="X[0] <= 103.5017\ngini = 0.5694\nsamples = 12\nvalue = [6, 1, 5]"] ;
95 -> 96 ;
97 [label="X[1] <= 78.1214\ngini = 0.54\nsamples = 10\nvalue = [6, 1, 3]"] ;
96 -> 97 ;
98 [label="gini = 0.0\nsamples = 1\nvalue = [0, 1, 0]"] ;
97 -> 98 ;
99 [label="X[2] <= 543.3816\ngini = 0.4444\nsamples = 9\nvalue = [6, 0, 3]"] ;
97 -> 99 ;
100 [label="gini = 0.0\nsamples = 3\nvalue = [3, 0, 0]"] ;
99 -> 100 ;
101 [label="X[0] <= 100.7193\ngini = 0.5\nsamples = 6\nvalue = [3, 0, 3]"] ;
99 -> 101 ;
102 [label="X[0] <= 90.3367\ngini = 0.375\nsamples = 4\nvalue = [1, 0, 3]"] ;
101 -> 102 ;
103 [label="gini = 0.0\nsamples = 1\nvalue = [1, 0, 0]"] ;
102 -> 103 ;
104 [label="gini = 0.0\nsamples = 3\nvalue = [0, 0, 3]"] ;
102 -> 104 ;
105 [label="gini = 0.0\nsamples = 2\nvalue = [2, 0, 0]"] ;
101 -> 105 ;
106 [label="gini = 0.0\nsamples = 2\nvalue = [0, 0, 2]"] ;
96 -> 106 ;
107 [label="gini = 0.0\nsamples = 5\nvalue = [5, 0, 0]"] ;
95 -> 107 ;
108 [label="X[2] <= 446.2796\ngini = 0.6578\nsamples = 46\nvalue = [16, 12, 18]"] ;
94 -> 108 ;
109 [label="X[0] <= 108.5036\ngini = 0.5714\nsamples = 14\nvalue = [8, 4, 2]"] ;
108 -> 109 ;
110 [label="gini = 0.0\nsamples = 1\nvalue = [0, 0, 1]"] ;
109 -> 110 ;
111 [label="X[2] <= 310.7268\ngini = 0.5207\nsamples = 13\nvalue = [8, 4, 1]"] ;
109 -> 111 ;
112 [label="gini = 0.0\nsamples = 1\nvalue = [0, 0, 1]"] ;
111 -> 112 ;
113 [label="X[1] <= 92.2752\ngini = 0.4444\nsamples = 12\nvalue = [8, 4, 0]"] ;
111 -> 113 ;
114 [label="X[2] <= 380.2682\ngini = 0.48\nsamples = 5\nvalue = [2, 3, 0]"] ;
113 -> 114 ;
115 [label="gini = 0.0\nsamples = 2\nvalue = [0, 2, 0]"] ;
114 -> 115 ;
116 [label="X[2] <= 399.6399\ngini = 0.4444\nsamples = 3\nvalue = [2, 1, 0]"] ;
114 -> 116 ;
117 [label="gini = 0.0\nsamples = 1\nvalue = [1, 0, 0]"] ;
116 -> 117 ;
118 [label="X[1] <= 81.853\ngini = 0.5\nsamples = 2\nvalue = [1, 1, 0]"] ;
116 -> 118 ;
119 [label="gini = 0.0\nsamples = 1\nvalue = [1, 0, 0]"] ;
118 -> 119 ;
120 [label="gini = 0.0\nsamples = 1\nvalue = [0, 1, 0]"] ;
118 -> 120 ;
121 [label="X[1] <= 127.1907\ngini = 0.2449\nsamples = 7\nvalue = [6, 1, 0]"] ;
113 -> 121 ;
122 [label="gini = 0.0\nsamples = 6\nvalue = [6, 0, 0]"] ;
121 -> 122 ;
123 [label="gini = 0.0\nsamples = 1\nvalue = [0, 1, 0]"] ;
121 -> 123 ;
124 [label="X[1] <= 93.4966\ngini = 0.625\nsamples = 32\nvalue = [8, 8, 16]"] ;
108 -> 124 ;
125 [label="X[2] <= 669.1281\ngini = 0.1975\nsamples = 9\nvalue = [1, 0, 8]"] ;
124 -> 125 ;
126 [label="gini = 0.0\nsamples = 7\nvalue = [0, 0, 7]"] ;
125 -> 126 ;
127 [label="X[2] <= 792.6583\ngini = 0.5\nsamples = 2\nvalue = [1, 0, 1]"] ;
125 -> 127 ;
128 [label="gini = 0.0\nsamples = 1\nvalue = [1, 0, 0]"] ;
127 -> 128 ;
129 [label="gini = 0.0\nsamples = 1\nvalue = [0, 0, 1]"] ;
127 -> 129 ;
130 [label="X[0] <= 122.1952\ngini = 0.6654\nsamples = 23\nvalue = [7, 8, 8]"] ;
124 -> 130 ;
131 [label="X[1] <= 106.0997\ngini = 0.6172\nsamples = 16\nvalue = [3, 8, 5]"] ;
130 -> 131 ;
132 [label="X[0] <= 118.5729\ngini = 0.6528\nsamples = 12\nvalue = [3, 4, 5]"] ;
131 -> 132 ;
133 [label="X[0] <= 115.6274\ngini = 0.642\nsamples = 9\nvalue = [3, 4, 2]"] ;
132 -> 133 ;
134 [label="X[0] <= 110.2821\ngini = 0.6111\nsamples = 6\nvalue = [3, 1, 2]"] ;
133 -> 134 ;
135 [label="X[2] <= 659.1332\ngini = 0.4444\nsamples = 3\nvalue = [2, 1, 0]"] ;
134 -> 135 ;
136 [label="gini = 0.0\nsamples = 2\nvalue = [2, 0, 0]"] ;
135 -> 136 ;
137 [label="gini = 0.0\nsamples = 1\nvalue = [0, 1, 0]"] ;
135 -> 137 ;
138 [label="X[2] <= 806.4316\ngini = 0.4444\nsamples = 3\nvalue = [1, 0, 2]"] ;
134 -> 138 ;
139 [label="gini = 0.0\nsamples = 2\nvalue = [0, 0, 2]"] ;
138 -> 139 ;
140 [label="gini = 0.0\nsamples = 1\nvalue = [1, 0, 0]"] ;
138 -> 140 ;
141 [label="gini = 0.0\nsamples = 3\nvalue = [0, 3, 0]"] ;
133 -> 141 ;
142 [label="gini = 0.0\nsamples = 3\nvalue = [0, 0, 3]"] ;
132 -> 142 ;
143 [label="gini = 0.0\nsamples = 4\nvalue = [0, 4, 0]"] ;
131 -> 143 ;
144 [label="X[0] <= 126.3402\ngini = 0.4898\nsamples = 7\nvalue = [4, 0, 3]"] ;
130 -> 144 ;
145 [label="gini = 0.0\nsamples = 3\nvalue = [3, 0, 0]"] ;
144 -> 145 ;
146 [label="X[1] <= 115.1306\ngini = 0.375\nsamples = 4\nvalue = [1, 0, 3]"] ;
144 -> 146 ;
147 [label="X[0] <= 127.8896\ngini = 0.5\nsamples = 2\nvalue = [1, 0, 1]"] ;
146 -> 147 ;
148 [label="gini = 0.0\nsamples = 1\nvalue = [0, 0, 1]"] ;
147 -> 148 ;
149 [label="gini = 0.0\nsamples = 1\nvalue = [1, 0, 0]"] ;
147 -> 149 ;
150 [label="gini = 0.0\nsamples = 2\nvalue = [0, 0, 2]"] ;
146 -> 150 ;
151 [label="gini = 0.0\nsamples = 6\nvalue = [6, 0, 0]"] ;
93 -> 151 ;
152 [label="X[2] <= 758.9799\ngini = 0.5284\nsamples = 92\nvalue = [12, 58, 22]"] ;
0 -> 152 [labeldistance=2.5, labelangle=-45, headlabel="False"] ;
153 [label="X[0] <= 143.7999\ngini = 0.4663\nsamples = 83\nvalue = [12, 58, 13]"] ;
152 -> 153 ;
154 [label="X[0] <= 135.6347\ngini = 0.5643\nsamples = 46\nvalue = [12, 27, 7]"] ;
153 -> 154 ;
155 [label="X[1] <= 85.1526\ngini = 0.3512\nsamples = 22\nvalue = [5, 17, 0]"] ;
154 -> 155 ;
156 [label="gini = 0.0\nsamples = 1\nvalue = [1, 0, 0]"] ;
155 -> 156 ;
157 [label="X[2] <= 214.4824\ngini = 0.3084\nsamples = 21\nvalue = [4, 17, 0]"] ;
155 -> 157 ;
158 [label="X[1] <= 98.6943\ngini = 0.5\nsamples = 6\nvalue = [3, 3, 0]"] ;
157 -> 158 ;
159 [label="gini = 0.0\nsamples = 3\nvalue = [0, 3, 0]"] ;
158 -> 159 ;
160 [label="gini = 0.0\nsamples = 3\nvalue = [3, 0, 0]"] ;
158 -> 160 ;
161 [label="X[1] <= 104.4965\ngini = 0.1244\nsamples = 15\nvalue = [1, 14, 0]"] ;
157 -> 161 ;
162 [label="X[1] <= 103.6758\ngini = 0.2449\nsamples = 7\nvalue = [1, 6, 0]"] ;
161 -> 162 ;
163 [label="gini = 0.0\nsamples = 6\nvalue = [0, 6, 0]"] ;
162 -> 163 ;
164 [label="gini = 0.0\nsamples = 1\nvalue = [1, 0, 0]"] ;
162 -> 164 ;
165 [label="gini = 0.0\nsamples = 8\nvalue = [0, 8, 0]"] ;
161 -> 165 ;
166 [label="X[2] <= 437.408\ngini = 0.6563\nsamples = 24\nvalue = [7, 10, 7]"] ;
154 -> 166 ;
167 [label="X[0] <= 137.2909\ngini = 0.5675\nsamples = 17\nvalue = [3, 10, 4]"] ;
166 -> 167 ;
168 [label="X[1] <= 116.6217\ngini = 0.64\nsamples = 5\nvalue = [2, 1, 2]"] ;
167 -> 168 ;
169 [label="X[2] <= 193.3755\ngini = 0.5\nsamples = 4\nvalue = [2, 0, 2]"] ;
168 -> 169 ;
170 [label="gini = 0.0\nsamples = 1\nvalue = [0, 0, 1]"] ;
169 -> 170 ;
171 [label="X[2] <= 284.2743\ngini = 0.4444\nsamples = 3\nvalue = [2, 0, 1]"] ;
169 -> 171 ;
172 [label="gini = 0.0\nsamples = 2\nvalue = [2, 0, 0]"] ;
171 -> 172 ;
173 [label="gini = 0.0\nsamples = 1\nvalue = [0, 0, 1]"] ;
171 -> 173 ;
174 [label="gini = 0.0\nsamples = 1\nvalue = [0, 1, 0]"] ;
168 -> 174 ;
175 [label="X[0] <= 140.8817\ngini = 0.4028\nsamples = 12\nvalue = [1, 9, 2]"] ;
167 -> 175 ;
176 [label="gini = 0.0\nsamples = 6\nvalue = [0, 6, 0]"] ;
175 -> 176 ;
177 [label="X[1] <= 131.5447\ngini = 0.6111\nsamples = 6\nvalue = [1, 3, 2]"] ;
175 -> 177 ;
178 [label="X[1] <= 122.4742\ngini = 0.48\nsamples = 5\nvalue = [0, 3, 2]"] ;
177 -> 178 ;
179 [label="X[2] <= 158.3255\ngini = 0.4444\nsamples = 3\nvalue = [0, 1, 2]"] ;
178 -> 179 ;
180 [label="gini = 0.0\nsamples = 1\nvalue = [0, 1, 0]"] ;
179 -> 180 ;
181 [label="gini = 0.0\nsamples = 2\nvalue = [0, 0, 2]"] ;
179 -> 181 ;
182 [label="gini = 0.0\nsamples = 2\nvalue = [0, 2, 0]"] ;
178 -> 182 ;
183 [label="gini = 0.0\nsamples = 1\nvalue = [1, 0, 0]"] ;
177 -> 183 ;
184 [label="X[2] <= 593.6916\ngini = 0.4898\nsamples = 7\nvalue = [4, 0, 3]"] ;
166 -> 184 ;
185 [label="X[2] <= 460.6401\ngini = 0.375\nsamples = 4\nvalue = [1, 0, 3]"] ;
184 -> 185 ;
186 [label="gini = 0.0\nsamples = 1\nvalue = [1, 0, 0]"] ;
185 -> 186 ;
187 [label="gini = 0.0\nsamples = 3\nvalue = [0, 0, 3]"] ;
185 -> 187 ;
188 [label="gini = 0.0\nsamples = 3\nvalue = [3, 0, 0]"] ;
184 -> 188 ;
189 [label="X[1] <= 107.4831\ngini = 0.2717\nsamples = 37\nvalue = [0, 31, 6]"] ;
153 -> 189 ;
190 [label="gini = 0.0\nsamples = 2\nvalue = [0, 0, 2]"] ;
189 -> 190 ;
191 [label="X[1] <= 155.2137\ngini = 0.2024\nsamples = 35\nvalue = [0, 31, 4]"] ;
189 -> 191 ;
192 [label="gini = 0.0\nsamples = 25\nvalue = [0, 25, 0]"] ;
191 -> 192 ;
193 [label="X[0] <= 181.6118\ngini = 0.48\nsamples = 10\nvalue = [0, 6, 4]"] ;
191 -> 193 ;
194 [label="X[2] <= 164.777\ngini = 0.375\nsamples = 4\nvalue = [0, 1, 3]"] ;
193 -> 194 ;
195 [label="gini = 0.0\nsamples = 1\nvalue = [0, 1, 0]"] ;
194 -> 195 ;
196 [label="gini = 0.0\nsamples = 3\nvalue = [0, 0, 3]"] ;
194 -> 196 ;
197 [label="X[1] <= 193.3669\ngini = 0.2778\nsamples = 6\nvalue = [0, 5, 1]"] ;
193 -> 197 ;
198 [label="gini = 0.0\nsamples = 4\nvalue = [0, 4, 0]"] ;
197 -> 198 ;
199 [label="X[1] <= 197.2392\ngini = 0.5\nsamples = 2\nvalue = [0, 1, 1]"] ;
197 -> 199 ;
200 [label="gini = 0.0\nsamples = 1\nvalue = [0, 0, 1]"] ;
199 -> 200 ;
201 [label="gini = 0.0\nsamples = 1\nvalue = [0, 1, 0]"] ;
199 -> 201 ;
202 [label="gini = 0.0\nsamples = 9\nvalue = [0, 0, 9]"] ;
152 -> 202 ;
}