digraph Tree {
node [shape=box] ;
0 [label="X[2] <= 74.6359\ngini = 0.6667\nsamples = 300\nvalue = [100, 100, 100]"] ;
1 [label="X[2] <= 54.221\ngini = 0.5179\nsamples = 84\nvalue = [23, 8, 53]"] ;
0 -> 1 [labeldistance=2.5, labelangle=45, headlabel="True"] ;
2 [label="X[2] <= 38.073\ngini = 0.2526\nsamples = 28\nvalue = [3, 1, 24]"] ;
1 -> 2 ;
3 [label="gini = 0.0\nsamples = 13\nvalue = [0, 0, 13]"] ;
2 -> 3 ;
4 [label="X[3] <= 65.1528\ngini = 0.4178\nsamples = 15\nvalue = [3, 1, 11]"] ;
2 -> 4 ;
5 [label="gini = 0.0\nsamples = 2\nvalue = [2, 0, 0]"] ;
4 -> 5 ;
6 [label="X[1] <= 60.5546\ngini = 0.2722\nsamples = 13\nvalue = [1, 1, 11]"] ;
4 -> 6 ;
7 [label="X[1] <= 58.9531\ngini = 0.56\nsamples = 5\nvalue = [1, 1, 3]"] ;
6 -> 7 ;
8 [label="X[3] <= 81.5837\ngini = 0.375\nsamples = 4\nvalue = [0, 1, 3]"] ;
7 -> 8 ;
9 [label="gini = 0.0\nsamples = 2\nvalue = [0, 0, 2]"] ;
8 -> 9 ;
10 [label="X[3] <= 100.7073\ngini = 0.5\nsamples = 2\nvalue = [0, 1, 1]"] ;
8 -> 10 ;
11 [label="gini = 0.0\nsamples = 1\nvalue = [0, 1, 0]"] ;
10 -> 11 ;
12 [label="gini = 0.0\nsamples = 1\nvalue = [0, 0, 1]"] ;
10 -> 12 ;
13 [label="gini = 0.0\nsamples = 1\nvalue = [1, 0, 0]"] ;
7 -> 13 ;
14 [label="gini = 0.0\nsamples = 8\nvalue = [0, 0, 8]"] ;
6 -> 14 ;
15 [label="X[0] <= 105.5379\ngini = 0.5886\nsamples = 56\nvalue = [20, 7, 29]"] ;
1 -> 15 ;
16 [label="X[0] <= 82.6927\ngini = 0.5787\nsamples = 36\nvalue = [19, 4, 13]"] ;
15 -> 16 ;
17 [label="X[1] <= 50.3411\ngini = 0.2975\nsamples = 11\nvalue = [9, 0, 2]"] ;
16 -> 17 ;
18 [label="gini = 0.0\nsamples = 1\nvalue = [0, 0, 1]"] ;
17 -> 18 ;
19 [label="X[2] <= 61.3061\ngini = 0.18\nsamples = 10\nvalue = [9, 0, 1]"] ;
17 -> 19 ;
20 [label="X[2] <= 58.1251\ngini = 0.4444\nsamples = 3\nvalue = [2, 0, 1]"] ;
19 -> 20 ;
21 [label="gini = 0.0\nsamples = 2\nvalue = [2, 0, 0]"] ;
20 -> 21 ;
22 [label="gini = 0.0\nsamples = 1\nvalue = [0, 0, 1]"] ;
20 -> 22 ;
23 [label="gini = 0.0\nsamples = 7\nvalue = [7, 0, 0]"] ;
19 -> 23 ;
24 [label="X[3] <= 89.9186\ngini = 0.6208\nsamples = 25\nvalue = [10, 4, 11]"] ;
16 -> 24 ;
25 [label="X[2] <= 71.6458\ngini = 0.2188\nsamples = 8\nvalue = [1, 0, 7]"] ;
24 -> 25 ;
26 [label="gini = 0.0\nsamples = 7\nvalue = [0, 0, 7]"] ;
25 -> 26 ;
27 [label="gini = 0.0\nsamples = 1\nvalue = [1, 0, 0]"] ;
25 -> 27 ;
28 [label="X[1] <= 54.5829\ngini = 0.609\nsamples = 17\nvalue = [9, 4, 4]"] ;
24 -> 28 ;
29 [label="X[2] <= 59.8311\ngini = 0.642\nsamples = 9\nvalue = [3, 4, 2]"] ;
28 -> 29 ;
30 [label="gini = 0.0\nsamples = 2\nvalue = [0, 0, 2]"] ;
29 -> 30 ;
31 [label="X[1] <= 52.9809\ngini = 0.4898\nsamples = 7\nvalue = [3, 4, 0]"] ;
29 -> 31 ;
32 [label="X[1] <= 45.7321\ngini = 0.375\nsamples = 4\nvalue = [3, 1, 0]"] ;
31 -> 32 ;
33 [label="gini = 0.0\nsamples = 1\nvalue = [0, 1, 0]"] ;
32 -> 33 ;
34 [label="gini = 0.0\nsamples = 3\nvalue = [3, 0, 0]"] ;
32 -> 34 ;
35 [label="gini = 0.0\nsamples = 3\nvalue = [0, 3, 0]"] ;
31 -> 35 ;
36 [label="X[0] <= 103.4709\ngini = 0.375\nsamples = 8\nvalue = [6, 0, 2]"] ;
28 -> 36 ;
37 [label="X[3] <= 94.7208\ngini = 0.2449\nsamples = 7\nvalue = [6, 0, 1]"] ;
36 -> 37 ;
38 [label="X[1] <= 62.4776\ngini = 0.5\nsamples = 2\nvalue = [1, 0, 1]"] ;
37 -> 38 ;
39 [label="gini = 0.0\nsamples = 1\nvalue = [0, 0, 1]"] ;
38 -> 39 ;
40 [label="gini = 0.0\nsamples = 1\nvalue = [1, 0, 0]"] ;
38 -> 40 ;
41 [label="gini = 0.0\nsamples = 5\nvalue = [5, 0, 0]"] ;
37 -> 41 ;
42 [label="gini = 0.0\nsamples = 1\nvalue = [0, 0, 1]"] ;
36 -> 42 ;
43 [label="X[3] <= 89.0431\ngini = 0.335\nsamples = 20\nvalue = [1, 3, 16]"] ;
15 -> 43 ;
44 [label="gini = 0.0\nsamples = 1\nvalue = [1, 0, 0]"] ;
43 -> 44 ;
45 [label="X[2] <= 66.4557\ngini = 0.2659\nsamples = 19\nvalue = [0, 3, 16]"] ;
43 -> 45 ;
46 [label="X[3] <= 94.6208\ngini = 0.5\nsamples = 4\nvalue = [0, 2, 2]"] ;
45 -> 46 ;
47 [label="gini = 0.0\nsamples = 1\nvalue = [0, 0, 1]"] ;
46 -> 47 ;
48 [label="X[1] <= 47.183\ngini = 0.4444\nsamples = 3\nvalue = [0, 2, 1]"] ;
46 -> 48 ;
49 [label="gini = 0.0\nsamples = 1\nvalue = [0, 0, 1]"] ;
48 -> 49 ;
50 [label="gini = 0.0\nsamples = 2\nvalue = [0, 2, 0]"] ;
48 -> 50 ;
51 [label="X[2] <= 72.838\ngini = 0.1244\nsamples = 15\nvalue = [0, 1, 14]"] ;
45 -> 51 ;
52 [label="gini = 0.0\nsamples = 9\nvalue = [0, 0, 9]"] ;
51 -> 52 ;
53 [label="X[2] <= 72.9985\ngini = 0.2778\nsamples = 6\nvalue = [0, 1, 5]"] ;
51 -> 53 ;
54 [label="gini = 0.0\nsamples = 1\nvalue = [0, 1, 0]"] ;
53 -> 54 ;
55 [label="gini = 0.0\nsamples = 5\nvalue = [0, 0, 5]"] ;
53 -> 55 ;
56 [label="X[0] <= 124.9201\ngini = 0.6442\nsamples = 216\nvalue = [77, 92, 47]"] ;
0 -> 56 [labeldistance=2.5, labelangle=-45, headlabel="False"] ;
57 [label="X[1] <= 54.6245\ngini = 0.5442\nsamples = 102\nvalue = [62, 27, 13]"] ;
56 -> 57 ;
58 [label="X[2] <= 88.2148\ngini = 0.6314\nsamples = 23\nvalue = [5, 11, 7]"] ;
57 -> 58 ;
59 [label="X[3] <= 97.522\ngini = 0.64\nsamples = 10\nvalue = [4, 2, 4]"] ;
58 -> 59 ;
60 [label="gini = 0.0\nsamples = 2\nvalue = [2, 0, 0]"] ;
59 -> 60 ;
61 [label="X[3] <= 109.6224\ngini = 0.625\nsamples = 8\nvalue = [2, 2, 4]"] ;
59 -> 61 ;
62 [label="X[1] <= 50.5414\ngini = 0.48\nsamples = 5\nvalue = [0, 2, 3]"] ;
61 -> 62 ;
63 [label="X[1] <= 42.9629\ngini = 0.4444\nsamples = 3\nvalue = [0, 2, 1]"] ;
62 -> 63 ;
64 [label="gini = 0.0\nsamples = 1\nvalue = [0, 0, 1]"] ;
63 -> 64 ;
65 [label="gini = 0.0\nsamples = 2\nvalue = [0, 2, 0]"] ;
63 -> 65 ;
66 [label="gini = 0.0\nsamples = 2\nvalue = [0, 0, 2]"] ;
62 -> 66 ;
67 [label="X[0] <= 108.8911\ngini = 0.4444\nsamples = 3\nvalue = [2, 0, 1]"] ;
61 -> 67 ;
68 [label="gini = 0.0\nsamples = 1\nvalue = [0, 0, 1]"] ;
67 -> 68 ;
69 [label="gini = 0.0\nsamples = 2\nvalue = [2, 0, 0]"] ;
67 -> 69 ;
70 [label="X[0] <= 122.4264\ngini = 0.4615\nsamples = 13\nvalue = [1, 9, 3]"] ;
58 -> 70 ;
71 [label="X[1] <= 33.4258\ngini = 0.314\nsamples = 11\nvalue = [1, 9, 1]"] ;
70 -> 71 ;
72 [label="gini = 0.0\nsamples = 1\nvalue = [0, 0, 1]"] ;
71 -> 72 ;
73 [label="X[2] <= 110.9478\ngini = 0.18\nsamples = 10\nvalue = [1, 9, 0]"] ;
71 -> 73 ;
74 [label="gini = 0.0\nsamples = 9\nvalue = [0, 9, 0]"] ;
73 -> 74 ;
75 [label="gini = 0.0\nsamples = 1\nvalue = [1, 0, 0]"] ;
73 -> 75 ;
76 [label="gini = 0.0\nsamples = 2\nvalue = [0, 0, 2]"] ;
70 -> 76 ;
77 [label="X[3] <= 99.7508\ngini = 0.4326\nsamples = 79\nvalue = [57, 16, 6]"] ;
57 -> 77 ;
78 [label="X[1] <= 78.2579\ngini = 0.3328\nsamples = 25\nvalue = [20, 1, 4]"] ;
77 -> 78 ;
79 [label="X[3] <= 99.2514\ngini = 0.2882\nsamples = 24\nvalue = [20, 1, 3]"] ;
78 -> 79 ;
80 [label="X[2] <= 77.8177\ngini = 0.2438\nsamples = 22\nvalue = [19, 1, 2]"] ;
79 -> 80 ;
81 [label="X[0] <= 82.6767\ngini = 0.56\nsamples = 5\nvalue = [3, 1, 1]"] ;
80 -> 81 ;
82 [label="gini = 0.0\nsamples = 3\nvalue = [3, 0, 0]"] ;
81 -> 82 ;
83 [label="X[3] <= 91.0108\ngini = 0.5\nsamples = 2\nvalue = [0, 1, 1]"] ;
81 -> 83 ;
84 [label="gini = 0.0\nsamples = 1\nvalue = [0, 1, 0]"] ;
83 -> 84 ;
85 [label="gini = 0.0\nsamples = 1\nvalue = [0, 0, 1]"] ;
83 -> 85 ;
86 [label="X[3] <= 95.7777\ngini = 0.1107\nsamples = 17\nvalue = [16, 0, 1]"] ;
80 -> 86 ;
87 [label="X[0] <= 91.1615\ngini = 0.2778\nsamples = 6\nvalue = [5, 0, 1]"] ;
86 -> 87 ;
88 [label="gini = 0.0\nsamples = 5\nvalue = [5, 0, 0]"] ;
87 -> 88 ;
89 [label="gini = 0.0\nsamples = 1\nvalue = [0, 0, 1]"] ;
87 -> 89 ;
90 [label="gini = 0.0\nsamples = 11\nvalue = [11, 0, 0]"] ;
86 -> 90 ;
91 [label="X[3] <= 99.6135\ngini = 0.5\nsamples = 2\nvalue = [1, 0, 1]"] ;
79 -> 91 ;
92 [label="gini = 0.0\nsamples = 1\nvalue = [0, 0, 1]"] ;
91 -> 92 ;
93 [label="gini = 0.0\nsamples = 1\nvalue = [1, 0, 0]"] ;
91 -> 93 ;
94 [label="gini = 0.0\nsamples = 1\nvalue = [0, 0, 1]"] ;
78 -> 94 ;
95 [label="X[2] <= 86.8979\ngini = 0.452\nsamples = 54\nvalue = [37, 15, 2]"] ;
77 -> 95 ;
96 [label="X[0] <= 105.9628\ngini = 0.5679\nsamples = 9\nvalue = [3, 5, 1]"] ;
95 -> 96 ;
97 [label="X[0] <= 95.0256\ngini = 0.375\nsamples = 4\nvalue = [3, 1, 0]"] ;
96 -> 97 ;
98 [label="gini = 0.0\nsamples = 1\nvalue = [0, 1, 0]"] ;
97 -> 98 ;
99 [label="gini = 0.0\nsamples = 3\nvalue = [3, 0, 0]"] ;
97 -> 99 ;
100 [label="X[0] <= 119.4042\ngini = 0.32\nsamples = 5\nvalue = [0, 4, 1]"] ;
96 -> 100 ;
101 [label="gini = 0.0\nsamples = 4\nvalue = [0, 4, 0]"] ;
100 -> 101 ;
102 [label="gini = 0.0\nsamples = 1\nvalue = [0, 0, 1]"] ;
100 -> 102 ;
103 [label="X[0] <= 103.1928\ngini = 0.3793\nsamples = 45\nvalue = [34, 10, 1]"] ;
95 -> 103 ;
104 [label="X[3] <= 105.1544\ngini = 0.4444\nsamples = 6\nvalue = [2, 4, 0]"] ;
103 -> 104 ;
105 [label="X[3] <= 100.1125\ngini = 0.4444\nsamples = 3\nvalue = [2, 1, 0]"] ;
104 -> 105 ;
106 [label="gini = 0.0\nsamples = 1\nvalue = [0, 1, 0]"] ;
105 -> 106 ;
107 [label="gini = 0.0\nsamples = 2\nvalue = [2, 0, 0]"] ;
105 -> 107 ;
108 [label="gini = 0.0\nsamples = 3\nvalue = [0, 3, 0]"] ;
104 -> 108 ;
109 [label="X[1] <= 55.3264\ngini = 0.3024\nsamples = 39\nvalue = [32, 6, 1]"] ;
103 -> 109 ;
110 [label="gini = 0.0\nsamples = 1\nvalue = [0, 0, 1]"] ;
109 -> 110 ;
111 [label="X[1] <= 76.8063\ngini = 0.2659\nsamples = 38\nvalue = [32, 6, 0]"] ;
109 -> 111 ;
112 [label="X[1] <= 70.6223\ngini = 0.3457\nsamples = 27\nvalue = [21, 6, 0]"] ;
111 -> 112 ;
113 [label="X[0] <= 110.5711\ngini = 0.2355\nsamples = 22\nvalue = [19, 3, 0]"] ;
112 -> 113 ;
114 [label="X[2] <= 99.108\ngini = 0.5\nsamples = 4\nvalue = [2, 2, 0]"] ;
113 -> 114 ;
115 [label="gini = 0.0\nsamples = 2\nvalue = [2, 0, 0]"] ;
114 -> 115 ;
116 [label="gini = 0.0\nsamples = 2\nvalue = [0, 2, 0]"] ;
114 -> 116 ;
117 [label="X[0] <= 121.5144\ngini = 0.1049\nsamples = 18\nvalue = [17, 1, 0]"] ;
113 -> 117 ;
118 [label="gini = 0.0\nsamples = 15\nvalue = [15, 0, 0]"] ;
117 -> 118 ;
119 [label="X[0] <= 123.4911\ngini = 0.4444\nsamples = 3\nvalue = [2, 1, 0]"] ;
117 -> 119 ;
120 [label="gini = 0.0\nsamples = 1\nvalue = [0, 1, 0]"] ;
119 -> 120 ;
121 [label="gini = 0.0\nsamples = 2\nvalue = [2, 0, 0]"] ;
119 -> 121 ;
122 [label="X[1] <= 72.8785\ngini = 0.48\nsamples = 5\nvalue = [2, 3, 0]"] ;
112 -> 122 ;
123 [label="gini = 0.0\nsamples = 2\nvalue = [0, 2, 0]"] ;
122 -> 123 ;
124 [label="X[1] <= 75.5595\ngini = 0.4444\nsamples = 3\nvalue = [2, 1, 0]"] ;
122 -> 124 ;
125 [label="gini = 0.0\nsamples = 2\nvalue = [2, 0, 0]"] ;
124 -> 125 ;
126 [label="gini = 0.0\nsamples = 1\nvalue = [0, 1, 0]"] ;
124 -> 126 ;
127 [label="gini = 0.0\nsamples = 11\nvalue = [11, 0, 0]"] ;
111 -> 127 ;
128 [label="X[0] <= 203.373\ngini = 0.5686\nsamples = 114\nvalue = [15, 65, 34]"] ;
56 -> 128 ;
129 [label="X[2] <= 109.2331\ngini = 0.5579\nsamples = 110\nvalue = [15, 65, 30]"] ;
128 -> 129 ;
130 [label="X[3] <= 135.3\ngini = 0.6209\nsamples = 44\nvalue = [7, 18, 19]"] ;
129 -> 130 ;
131 [label="X[1] <= 67.4268\ngini = 0.6259\nsamples = 39\nvalue = [7, 18, 14]"] ;
130 -> 131 ;
132 [label="X[3] <= 127.1865\ngini = 0.5874\nsamples = 29\nvalue = [3, 13, 13]"] ;
131 -> 132 ;
133 [label="X[2] <= 89.427\ngini = 0.5536\nsamples = 17\nvalue = [2, 5, 10]"] ;
132 -> 133 ;
134 [label="X[3] <= 115.5763\ngini = 0.6667\nsamples = 6\nvalue = [2, 2, 2]"] ;
133 -> 134 ;
135 [label="gini = 0.0\nsamples = 2\nvalue = [0, 0, 2]"] ;
134 -> 135 ;
136 [label="X[2] <= 87.4511\ngini = 0.5\nsamples = 4\nvalue = [2, 2, 0]"] ;
134 -> 136 ;
137 [label="gini = 0.0\nsamples = 2\nvalue = [0, 2, 0]"] ;
136 -> 137 ;
138 [label="gini = 0.0\nsamples = 2\nvalue = [2, 0, 0]"] ;
136 -> 138 ;
139 [label="X[3] <= 115.9635\ngini = 0.3967\nsamples = 11\nvalue = [0, 3, 8]"] ;
133 -> 139 ;
140 [label="gini = 0.0\nsamples = 1\nvalue = [0, 1, 0]"] ;
139 -> 140 ;
141 [label="X[0] <= 136.1933\ngini = 0.32\nsamples = 10\nvalue = [0, 2, 8]"] ;
139 -> 141 ;
142 [label="X[1] <= 50.2623\ngini = 0.4444\nsamples = 6\nvalue = [0, 2, 4]"] ;
141 -> 142 ;
143 [label="gini = 0.0\nsamples = 1\nvalue = [0, 1, 0]"] ;
142 -> 143 ;
144 [label="X[0] <= 133.8326\ngini = 0.32\nsamples = 5\nvalue = [0, 1, 4]"] ;
142 -> 144 ;
145 [label="gini = 0.0\nsamples = 4\nvalue = [0, 0, 4]"] ;
144 -> 145 ;
146 [label="gini = 0.0\nsamples = 1\nvalue = [0, 1, 0]"] ;
144 -> 146 ;
147 [label="gini = 0.0\nsamples = 4\nvalue = [0, 0, 4]"] ;
141 -> 147 ;
148 [label="X[0] <= 146.9804\ngini = 0.4861\nsamples = 12\nvalue = [1, 8, 3]"] ;
132 -> 148 ;
149 [label="X[2] <= 103.6758\ngini = 0.2188\nsamples = 8\nvalue = [1, 7, 0]"] ;
148 -> 149 ;
150 [label="gini = 0.0\nsamples = 6\nvalue = [0, 6, 0]"] ;
149 -> 150 ;
151 [label="X[1] <= 58.2007\ngini = 0.5\nsamples = 2\nvalue = [1, 1, 0]"] ;
149 -> 151 ;
152 [label="gini = 0.0\nsamples = 1\nvalue = [0, 1, 0]"] ;
151 -> 152 ;
153 [label="gini = 0.0\nsamples = 1\nvalue = [1, 0, 0]"] ;
151 -> 153 ;
154 [label="X[2] <= 99.6803\ngini = 0.375\nsamples = 4\nvalue = [0, 1, 3]"] ;
148 -> 154 ;
155 [label="X[1] <= 62.1993\ngini = 0.5\nsamples = 2\nvalue = [0, 1, 1]"] ;
154 -> 155 ;
156 [label="gini = 0.0\nsamples = 1\nvalue = [0, 0, 1]"] ;
155 -> 156 ;
157 [label="gini = 0.0\nsamples = 1\nvalue = [0, 1, 0]"] ;
155 -> 157 ;
158 [label="gini = 0.0\nsamples = 2\nvalue = [0, 0, 2]"] ;
154 -> 158 ;
159 [label="X[3] <= 123.6655\ngini = 0.58\nsamples = 10\nvalue = [4, 5, 1]"] ;
131 -> 159 ;
160 [label="gini = 0.0\nsamples = 2\nvalue = [0, 2, 0]"] ;
159 -> 160 ;
161 [label="X[2] <= 85.7244\ngini = 0.5938\nsamples = 8\nvalue = [4, 3, 1]"] ;
159 -> 161 ;
162 [label="gini = 0.0\nsamples = 2\nvalue = [2, 0, 0]"] ;
161 -> 162 ;
163 [label="X[0] <= 138.8172\ngini = 0.6111\nsamples = 6\nvalue = [2, 3, 1]"] ;
161 -> 163 ;
164 [label="X[2] <= 99.2247\ngini = 0.48\nsamples = 5\nvalue = [2, 3, 0]"] ;
163 -> 164 ;
165 [label="gini = 0.0\nsamples = 2\nvalue = [0, 2, 0]"] ;
164 -> 165 ;
166 [label="X[1] <= 72.703\ngini = 0.4444\nsamples = 3\nvalue = [2, 1, 0]"] ;
164 -> 166 ;
167 [label="gini = 0.0\nsamples = 1\nvalue = [0, 1, 0]"] ;
166 -> 167 ;
168 [label="gini = 0.0\nsamples = 2\nvalue = [2, 0, 0]"] ;
166 -> 168 ;
169 [label="gini = 0.0\nsamples = 1\nvalue = [0, 0, 1]"] ;
163 -> 169 ;
170 [label="gini = 0.0\nsamples = 5\nvalue = [0, 0, 5]"] ;
130 -> 170 ;
171 [label="X[0] <= 144.5748\ngini = 0.4504\nsamples = 66\nvalue = [8, 47, 11]"] ;
129 -> 171 ;
172 [label="X[1] <= 58.8576\ngini = 0.6046\nsamples = 28\nvalue = [7, 15, 6]"] ;
171 -> 172 ;
173 [label="X[1] <= 45.9665\ngini = 0.1653\nsamples = 11\nvalue = [0, 10, 1]"] ;
172 -> 173 ;
174 [label="X[1] <= 36.3559\ngini = 0.5\nsamples = 2\nvalue = [0, 1, 1]"] ;
173 -> 174 ;
175 [label="gini = 0.0\nsamples = 1\nvalue = [0, 1, 0]"] ;
174 -> 175 ;
176 [label="gini = 0.0\nsamples = 1\nvalue = [0, 0, 1]"] ;
174 -> 176 ;
177 [label="gini = 0.0\nsamples = 9\nvalue = [0, 9, 0]"] ;
173 -> 177 ;
178 [label="X[2] <= 115.7588\ngini = 0.6574\nsamples = 17\nvalue = [7, 5, 5]"] ;
172 -> 178 ;
179 [label="gini = 0.0\nsamples = 3\nvalue = [0, 3, 0]"] ;
178 -> 179 ;
180 [label="X[2] <= 149.2812\ngini = 0.602\nsamples = 14\nvalue = [7, 2, 5]"] ;
178 -> 180 ;
181 [label="X[0] <= 142.7293\ngini = 0.5289\nsamples = 11\nvalue = [7, 2, 2]"] ;
180 -> 181 ;
182 [label="X[1] <= 84.6809\ngini = 0.3704\nsamples = 9\nvalue = [7, 1, 1]"] ;
181 -> 182 ;
183 [label="X[3] <= 139.1317\ngini = 0.2188\nsamples = 8\nvalue = [7, 1, 0]"] ;
182 -> 183 ;
184 [label="gini = 0.0\nsamples = 6\nvalue = [6, 0, 0]"] ;
183 -> 184 ;
185 [label="X[1] <= 66.1329\ngini = 0.5\nsamples = 2\nvalue = [1, 1, 0]"] ;
183 -> 185 ;
186 [label="gini = 0.0\nsamples = 1\nvalue = [0, 1, 0]"] ;
185 -> 186 ;
187 [label="gini = 0.0\nsamples = 1\nvalue = [1, 0, 0]"] ;
185 -> 187 ;
188 [label="gini = 0.0\nsamples = 1\nvalue = [0, 0, 1]"] ;
182 -> 188 ;
189 [label="X[1] <= 72.1463\ngini = 0.5\nsamples = 2\nvalue = [0, 1, 1]"] ;
181 -> 189 ;
190 [label="gini = 0.0\nsamples = 1\nvalue = [0, 1, 0]"] ;
189 -> 190 ;
191 [label="gini = 0.0\nsamples = 1\nvalue = [0, 0, 1]"] ;
189 -> 191 ;
192 [label="gini = 0.0\nsamples = 3\nvalue = [0, 0, 3]"] ;
180 -> 192 ;
193 [label="X[0] <= 165.3931\ngini = 0.2729\nsamples = 38\nvalue = [1, 32, 5]"] ;
171 -> 193 ;
194 [label="X[1] <= 67.1833\ngini = 0.1563\nsamples = 24\nvalue = [1, 22, 1]"] ;
193 -> 194 ;
195 [label="gini = 0.0\nsamples = 16\nvalue = [0, 16, 0]"] ;
194 -> 195 ;
196 [label="X[1] <= 67.7378\ngini = 0.4063\nsamples = 8\nvalue = [1, 6, 1]"] ;
194 -> 196 ;
197 [label="gini = 0.0\nsamples = 1\nvalue = [1, 0, 0]"] ;
196 -> 197 ;
198 [label="X[2] <= 120.259\ngini = 0.2449\nsamples = 7\nvalue = [0, 6, 1]"] ;
196 -> 198 ;
199 [label="X[2] <= 116.7278\ngini = 0.5\nsamples = 2\nvalue = [0, 1, 1]"] ;
198 -> 199 ;
200 [label="gini = 0.0\nsamples = 1\nvalue = [0, 1, 0]"] ;
199 -> 200 ;
201 [label="gini = 0.0\nsamples = 1\nvalue = [0, 0, 1]"] ;
199 -> 201 ;
202 [label="gini = 0.0\nsamples = 5\nvalue = [0, 5, 0]"] ;
198 -> 202 ;
203 [label="X[0] <= 169.1021\ngini = 0.4082\nsamples = 14\nvalue = [0, 10, 4]"] ;
193 -> 203 ;
204 [label="gini = 0.0\nsamples = 2\nvalue = [0, 0, 2]"] ;
203 -> 204 ;
205 [label="X[1] <= 50.7124\ngini = 0.2778\nsamples = 12\nvalue = [0, 10, 2]"] ;
203 -> 205 ;
206 [label="X[1] <= 41.7239\ngini = 0.5\nsamples = 4\nvalue = [0, 2, 2]"] ;
205 -> 206 ;
207 [label="gini = 0.0\nsamples = 2\nvalue = [0, 2, 0]"] ;
206 -> 207 ;
208 [label="gini = 0.0\nsamples = 2\nvalue = [0, 0, 2]"] ;
206 -> 208 ;
209 [label="gini = 0.0\nsamples = 8\nvalue = [0, 8, 0]"] ;
205 -> 209 ;
210 [label="gini = 0.0\nsamples = 4\nvalue = [0, 0, 4]"] ;
128 -> 210 ;
}